{
  "W": [
    [
      0.22232766449005872,
      0.15871254869024726,
      -0.2138864076812347,
      0.33883485838207006,
      -0.20137349741404778,
      0.027173530341625916,
      -0.03951130736406708,
      -0.0017593412286774322,
      -0.0033609462309638206,
      -0.004055804897665618,
      0.16856964974888888,
      0.0010671543179456239,
      -0.21300946769975668,
      0.0785840024255208,
      -0.12380928635974735,
      0.3209161048607945,
      -0.02277107378606948
    ],
    [
      -0.33378335890788435,
      0.28942978067155045,
      0.2698136760550151,
      0.4629970342335098,
      -0.03904719115749809,
      -0.1996928122850486,
      0.2883258390832628,
      -0.0031853350612859378,
      -0.002790221835005751,
      -0.002221806419131692,
      0.21810834399759463,
      -0.003322501556903287,
      -0.21968218455667166,
      -0.20303079431742085,
      0.2311448365464917,
      -0.07452960320072806,
      0.061429859670519595
    ],
    [
      0.11163080408210797,
      -0.4434189290535946,
      -0.05791982404528168,
      -0.8076536501644334,
      0.23443862815692973,
      0.17621763055641645,
      -0.24685554897739598,
      -0.00042273268848381514,
      -0.002579100869105272,
      0.0017147572371447016,
      -0.39127565753478416,
      0.0028446309517542543,
      0.4273763933332335,
      0.12473451807731628,
      -0.09977349398366402,
      -0.24442476518611692,
      -0.04194061064260145
    ]
  ],
  "b": [
    0.18788665956177958,
    0.24115394242787644,
    -0.4290406019896566
  ]
}